<?xml version="1.0"?>
<opencv_storage>
<stage20>
  <maxWeakCount>10</maxWeakCount>
  <stageThreshold>-9.0981006622314453e-01</stageThreshold>
  <weakClassifiers>
    <_>
      <internalNodes>
        0 -1 118498 -3.5740789026021957e-03</internalNodes>
      <leafValues>
        8.5714288055896759e-02 -5.8202248811721802e-01</leafValues></_>
    <_>
      <internalNodes>
        0 -1 3138 2.2539142519235611e-03</internalNodes>
      <leafValues>
        6.7416325211524963e-02 -7.7770149707794189e-01</leafValues></_>
    <_>
      <internalNodes>
        0 -1 24815 -4.1823759675025940e-02</internalNodes>
      <leafValues>
        4.9942338466644287e-01 -2.0285873115062714e-01</leafValues></_>
    <_>
      <internalNodes>
        0 -1 148661 -1.9229887984693050e-03</internalNodes>
      <leafValues>
        3.4702271223068237e-01 -2.7675312757492065e-01</leafValues></_>
    <_>
      <internalNodes>
        0 -1 133518 1.6815036069601774e-03</internalNodes>
      <leafValues>
        1.3525052368640900e-01 -6.3818353414535522e-01</leafValues></_>
    <_>
      <internalNodes>
        0 -1 125995 5.2815474569797516e-02</internalNodes>
      <leafValues>
        -2.5364580750465393e-01 4.0853112936019897e-01</leafValues></_>
    <_>
      <internalNodes>
        0 -1 151381 -2.4511013180017471e-04</internalNodes>
      <leafValues>
        3.0306720733642578e-01 -3.2329386472702026e-01</leafValues></_>
    <_>
      <internalNodes>
        0 -1 130913 4.0084170177578926e-03</internalNodes>
      <leafValues>
        -1.7822878062725067e-01 5.3193527460098267e-01</leafValues></_>
    <_>
      <internalNodes>
        0 -1 88691 -2.0129432901740074e-02</internalNodes>
      <leafValues>
        -7.5060057640075684e-01 1.1650028824806213e-01</leafValues></_>
    <_>
      <internalNodes>
        0 -1 9442 3.9057747926563025e-04</internalNodes>
      <leafValues>
        2.0478953421115875e-01 -4.9332019686698914e-01</leafValues></_></weakClassifiers></stage20>
</opencv_storage>
