<?xml version="1.0"?>
<opencv_storage>
<stage10>
  <maxWeakCount>7</maxWeakCount>
  <stageThreshold>-1.4196572303771973e+00</stageThreshold>
  <weakClassifiers>
    <_>
      <internalNodes>
        0 -1 85019 -1.3280135393142700e-01</internalNodes>
      <leafValues>
        3.3944955468177795e-01 -6.5079367160797119e-01</leafValues></_>
    <_>
      <internalNodes>
        0 -1 234 -6.5317824482917786e-02</internalNodes>
      <leafValues>
        6.5612518787384033e-01 -3.2547774910926819e-01</leafValues></_>
    <_>
      <internalNodes>
        0 -1 23141 -7.2533652186393738e-02</internalNodes>
      <leafValues>
        4.6948844194412231e-01 -3.6347636580467224e-01</leafValues></_>
    <_>
      <internalNodes>
        0 -1 134222 -1.8441784195601940e-03</internalNodes>
      <leafValues>
        -7.4728685617446899e-01 2.2693486511707306e-01</leafValues></_>
    <_>
      <internalNodes>
        0 -1 12233 -2.7658962062560022e-04</internalNodes>
      <leafValues>
        -8.0315363407135010e-01 1.8939515948295593e-01</leafValues></_>
    <_>
      <internalNodes>
        0 -1 24921 -7.8966476023197174e-02</internalNodes>
      <leafValues>
        2.1585355699062347e-01 -6.2024301290512085e-01</leafValues></_>
    <_>
      <internalNodes>
        0 -1 6 1.2735801283270121e-03</internalNodes>
      <leafValues>
        1.2400351464748383e-01 -7.3930662870407104e-01</leafValues></_></weakClassifiers></stage10>
</opencv_storage>
