<?xml version="1.0"?>
<opencv_storage>
<stage11>
  <maxWeakCount>9</maxWeakCount>
  <stageThreshold>-1.1430532932281494e+00</stageThreshold>
  <weakClassifiers>
    <_>
      <internalNodes>
        0 -1 120 -4.4809233397245407e-02</internalNodes>
      <leafValues>
        6.6666668653488159e-01 -5.4724407196044922e-01</leafValues></_>
    <_>
      <internalNodes>
        0 -1 77278 2.3402187973260880e-02</internalNodes>
      <leafValues>
        -3.9563331007957458e-01 3.0487927794456482e-01</leafValues></_>
    <_>
      <internalNodes>
        0 -1 162311 -3.9742456283420324e-04</internalNodes>
      <leafValues>
        -7.9023361206054688e-01 1.6723710298538208e-01</leafValues></_>
    <_>
      <internalNodes>
        0 -1 28896 -8.2664340734481812e-02</internalNodes>
      <leafValues>
        1.6463901102542877e-01 -8.2826894521713257e-01</leafValues></_>
    <_>
      <internalNodes>
        0 -1 162097 -6.4333237241953611e-04</internalNodes>
      <leafValues>
        -7.0840829610824585e-01 1.3317164778709412e-01</leafValues></_>
    <_>
      <internalNodes>
        0 -1 12529 -7.2310685936827213e-05</internalNodes>
      <leafValues>
        -4.8566642403602600e-01 2.1695958077907562e-01</leafValues></_>
    <_>
      <internalNodes>
        0 -1 12238 7.8197021503001451e-04</internalNodes>
      <leafValues>
        1.7852492630481720e-01 -6.1778485774993896e-01</leafValues></_>
    <_>
      <internalNodes>
        0 -1 153108 -4.8823696561157703e-03</internalNodes>
      <leafValues>
        -6.3278156518936157e-01 1.6877295076847076e-01</leafValues></_>
    <_>
      <internalNodes>
        0 -1 124285 -1.6362678725272417e-03</internalNodes>
      <leafValues>
        4.0840858221054077e-01 -2.8599116206169128e-01</leafValues></_></weakClassifiers></stage11>
</opencv_storage>
