<?xml version="1.0"?>
<opencv_storage>
<stage2>
  <maxWeakCount>7</maxWeakCount>
  <stageThreshold>-9.1665422916412354e-01</stageThreshold>
  <weakClassifiers>
    <_>
      <internalNodes>
        0 -1 71368 3.7935804575681686e-02</internalNodes>
      <leafValues>
        -6.9950741529464722e-01 2.3611110448837280e-01</leafValues></_>
    <_>
      <internalNodes>
        0 -1 159340 1.1020402424037457e-02</internalNodes>
      <leafValues>
        -3.9736071228981018e-01 5.0196641683578491e-01</leafValues></_>
    <_>
      <internalNodes>
        0 -1 132454 -1.2306002900004387e-03</internalNodes>
      <leafValues>
        2.8763422369956970e-01 -5.9108418226242065e-01</leafValues></_>
    <_>
      <internalNodes>
        0 -1 125 -1.2590365484356880e-02</internalNodes>
      <leafValues>
        -7.9270398616790771e-01 1.8512223660945892e-01</leafValues></_>
    <_>
      <internalNodes>
        0 -1 11982 4.1724637150764465e-02</internalNodes>
      <leafValues>
        -2.1974672377109528e-01 8.1231933832168579e-01</leafValues></_>
    <_>
      <internalNodes>
        0 -1 95534 1.3582618534564972e-01</internalNodes>
      <leafValues>
        -2.1764463186264038e-01 7.6811081171035767e-01</leafValues></_>
    <_>
      <internalNodes>
        0 -1 162273 -4.8140231519937515e-02</internalNodes>
      <leafValues>
        -1. 1.8705649673938751e-01</leafValues></_></weakClassifiers></stage2>
</opencv_storage>
