<?xml version="1.0"?>
<opencv_storage>
<stage12>
  <maxWeakCount>10</maxWeakCount>
  <stageThreshold>-1.0490159988403320e+00</stageThreshold>
  <weakClassifiers>
    <_>
      <internalNodes>
        0 -1 140 -2.7821943163871765e-02</internalNodes>
      <leafValues>
        1.5789473056793213e-01 -6.1467891931533813e-01</leafValues></_>
    <_>
      <internalNodes>
        0 -1 152446 -1.0592360049486160e-03</internalNodes>
      <leafValues>
        2.9062631726264954e-01 -4.5557039976119995e-01</leafValues></_>
    <_>
      <internalNodes>
        0 -1 5168 8.4656387567520142e-02</internalNodes>
      <leafValues>
        -1.7905943095684052e-01 7.0351117849349976e-01</leafValues></_>
    <_>
      <internalNodes>
        0 -1 107287 2.3611897230148315e-01</internalNodes>
      <leafValues>
        -1.5112765133380890e-01 7.0027327537536621e-01</leafValues></_>
    <_>
      <internalNodes>
        0 -1 110261 -2.4278685450553894e-03</internalNodes>
      <leafValues>
        3.3713945746421814e-01 -4.0568992495536804e-01</leafValues></_>
    <_>
      <internalNodes>
        0 -1 54723 8.6320549249649048e-02</internalNodes>
      <leafValues>
        1.7339836061000824e-01 -8.6735606193542480e-01</leafValues></_>
    <_>
      <internalNodes>
        0 -1 1006 3.6392357200384140e-02</internalNodes>
      <leafValues>
        -2.3181019723415375e-01 4.9618461728096008e-01</leafValues></_>
    <_>
      <internalNodes>
        0 -1 144215 -1.6765832901000977e-02</internalNodes>
      <leafValues>
        5.9092134237289429e-01 -1.7166458070278168e-01</leafValues></_>
    <_>
      <internalNodes>
        0 -1 23084 -1.5377975068986416e-02</internalNodes>
      <leafValues>
        6.2702232599258423e-01 -1.9463941454887390e-01</leafValues></_>
    <_>
      <internalNodes>
        0 -1 35016 -1.1741334572434425e-02</internalNodes>
      <leafValues>
        4.3899682164192200e-01 -2.6338344812393188e-01</leafValues></_></weakClassifiers></stage12>
</opencv_storage>
