<?xml version="1.0"?>
<opencv_storage>
<stage7>
  <maxWeakCount>9</maxWeakCount>
  <stageThreshold>-1.3172345161437988e+00</stageThreshold>
  <weakClassifiers>
    <_>
      <internalNodes>
        0 -1 38835 -2.1461981534957886e-01</internalNodes>
      <leafValues>
        -6.9026547670364380e-01 6.3265305757522583e-01</leafValues></_>
    <_>
      <internalNodes>
        0 -1 47401 -2.1461706608533859e-02</internalNodes>
      <leafValues>
        3.3304440975189209e-01 -4.7696548700332642e-01</leafValues></_>
    <_>
      <internalNodes>
        0 -1 152357 5.5880941450595856e-02</internalNodes>
      <leafValues>
        -2.3648338019847870e-01 6.9633096456527710e-01</leafValues></_>
    <_>
      <internalNodes>
        0 -1 149277 -4.8756725154817104e-03</internalNodes>
      <leafValues>
        6.7519772052764893e-01 -1.8506994843482971e-01</leafValues></_>
    <_>
      <internalNodes>
        0 -1 127983 -3.2478563487529755e-02</internalNodes>
      <leafValues>
        -2.2236452996730804e-01 6.3475894927978516e-01</leafValues></_>
    <_>
      <internalNodes>
        0 -1 33817 4.1647170291980729e-05</internalNodes>
      <leafValues>
        -3.5883927345275879e-01 4.2876142263412476e-01</leafValues></_>
    <_>
      <internalNodes>
        0 -1 110596 6.8628520239144564e-04</internalNodes>
      <leafValues>
        -2.9741370677947998e-01 4.9242931604385376e-01</leafValues></_>
    <_>
      <internalNodes>
        0 -1 121298 -1.4364020898938179e-05</internalNodes>
      <leafValues>
        4.3774700164794922e-01 -3.1917917728424072e-01</leafValues></_>
    <_>
      <internalNodes>
        0 -1 50302 -1.4509269036352634e-02</internalNodes>
      <leafValues>
        7.1675843000411987e-01 -1.8076419830322266e-01</leafValues></_></weakClassifiers></stage7>
</opencv_storage>
