<?xml version="1.0"?>
<opencv_storage>
<stage18>
  <maxWeakCount>12</maxWeakCount>
  <stageThreshold>-1.1882100105285645e+00</stageThreshold>
  <weakClassifiers>
    <_>
      <internalNodes>
        0 -1 137021 -4.7801416367292404e-03</internalNodes>
      <leafValues>
        2.8571429848670959e-01 -5.6250000000000000e-01</leafValues></_>
    <_>
      <internalNodes>
        0 -1 73780 -3.1432104151463136e-05</internalNodes>
      <leafValues>
        2.8680318593978882e-01 -3.5025870800018311e-01</leafValues></_>
    <_>
      <internalNodes>
        0 -1 116104 1.3747449884249363e-05</internalNodes>
      <leafValues>
        -4.7533002495765686e-01 2.4014233052730560e-01</leafValues></_>
    <_>
      <internalNodes>
        0 -1 60264 -6.5653177443891764e-04</internalNodes>
      <leafValues>
        5.6718868017196655e-01 -1.8135023117065430e-01</leafValues></_>
    <_>
      <internalNodes>
        0 -1 25716 2.9609625926241279e-04</internalNodes>
      <leafValues>
        1.7989180982112885e-01 -5.6074279546737671e-01</leafValues></_>
    <_>
      <internalNodes>
        0 -1 114088 1.4409052673727274e-03</internalNodes>
      <leafValues>
        1.5189920365810394e-01 -8.0516219139099121e-01</leafValues></_>
    <_>
      <internalNodes>
        0 -1 41707 1.6168251633644104e-02</internalNodes>
      <leafValues>
        -3.5246795415878296e-01 2.4385273456573486e-01</leafValues></_>
    <_>
      <internalNodes>
        0 -1 62719 -9.7908871248364449e-03</internalNodes>
      <leafValues>
        5.5807638168334961e-01 -1.8298730254173279e-01</leafValues></_>
    <_>
      <internalNodes>
        0 -1 480 -6.7104748450219631e-03</internalNodes>
      <leafValues>
        3.7179920077323914e-01 -2.4687723815441132e-01</leafValues></_>
    <_>
      <internalNodes>
        0 -1 13061 3.1376246362924576e-02</internalNodes>
      <leafValues>
        -1.6617196798324585e-01 6.2543570995330811e-01</leafValues></_>
    <_>
      <internalNodes>
        0 -1 77516 -1.9274093210697174e-02</internalNodes>
      <leafValues>
        -7.4152332544326782e-01 1.5963983535766602e-01</leafValues></_>
    <_>
      <internalNodes>
        0 -1 124689 -6.6310318652540445e-04</internalNodes>
      <leafValues>
        2.9347139596939087e-01 -3.6393502354621887e-01</leafValues></_></weakClassifiers></stage18>
</opencv_storage>
